<?xml version="1.0"?>
<!-- DTD for the XMLBIF 0.3 format -->
<!DOCTYPE BIF [
	<!ELEMENT BIF ( NETWORK )*>
	      <!ATTLIST BIF VERSION CDATA #REQUIRED>
	<!ELEMENT NETWORK ( NAME, ( PROPERTY | VARIABLE | DEFINITION )* )>
	<!ELEMENT NAME (#PCDATA)>
	<!ELEMENT VARIABLE ( NAME, ( OUTCOME |  PROPERTY )* ) >
	      <!ATTLIST VARIABLE TYPE (nature|decision|utility) "nature">
	<!ELEMENT OUTCOME (#PCDATA)>
	<!ELEMENT DEFINITION ( FOR | GIVEN | TABLE | PROPERTY )* >
	<!ELEMENT FOR (#PCDATA)>
	<!ELEMENT GIVEN (#PCDATA)>
	<!ELEMENT TABLE (#PCDATA)>
	<!ELEMENT PROPERTY (#PCDATA)>
]>


<BIF VERSION="0.3">
<NETWORK>
<NAME>RandomNet</NAME>
<VARIABLE TYPE="nature">
<NAME>A</NAME>
<OUTCOME>Value1</OUTCOME>
<OUTCOME>Value2</OUTCOME>
<PROPERTY>position = (334,235)</PROPERTY>
</VARIABLE>
<VARIABLE TYPE="nature">
<NAME>C</NAME>
<OUTCOME>Value1</OUTCOME>
<OUTCOME>Value2</OUTCOME>
<PROPERTY>position = (448,318)</PROPERTY>
</VARIABLE>
<VARIABLE TYPE="nature">
<NAME>E</NAME>
<OUTCOME>Value1</OUTCOME>
<OUTCOME>Value2</OUTCOME>
<PROPERTY>position = (576,265)</PROPERTY>
</VARIABLE>
<VARIABLE TYPE="nature">
<NAME>B</NAME>
<OUTCOME>Value1</OUTCOME>
<OUTCOME>Value2</OUTCOME>
<PROPERTY>position = (354,294)</PROPERTY>
</VARIABLE>
<VARIABLE TYPE="nature">
<NAME>D</NAME>
<OUTCOME>Value1</OUTCOME>
<OUTCOME>Value2</OUTCOME>
<PROPERTY>position = (536,301)</PROPERTY>
</VARIABLE>
<VARIABLE TYPE="nature">
<NAME>CLASS</NAME>
<OUTCOME>True</OUTCOME>
<OUTCOME>False</OUTCOME>
<PROPERTY>position = (477,240)</PROPERTY>
</VARIABLE>
<DEFINITION>
<FOR>A</FOR>
<TABLE>
0.15 0.85 
</TABLE>
</DEFINITION>
<DEFINITION>
<FOR>C</FOR>
<TABLE>
0.3 0.7000000000000001 
</TABLE>
</DEFINITION>
<DEFINITION>
<FOR>E</FOR>
<TABLE>
0.5 0.5 
</TABLE>
</DEFINITION>
<DEFINITION>
<FOR>B</FOR>
<TABLE>
0.10000000000000002 0.9 
</TABLE>
</DEFINITION>
<DEFINITION>
<FOR>D</FOR>
<TABLE>
0.45 0.5499999999999999 
</TABLE>
</DEFINITION>
<DEFINITION>
<FOR>CLASS</FOR>
<GIVEN>A</GIVEN>
<GIVEN>E</GIVEN>
<GIVEN>C</GIVEN>
<GIVEN>D</GIVEN>
<GIVEN>B</GIVEN>
<TABLE>
0.3761238761238761 0.6238761238761239 
0.3091908091908092 0.6908091908091908 
0.9805194805194806 0.01948051948051948 
0.9675324675324676 0.032467532467532464 
0.8616383616383616 0.13836163836163837 
0.6928071928071928 0.30719280719280717 
0.7867132867132867 0.21328671328671328 
0.11038961038961038 0.8896103896103896 
0.2192807192807193 0.7807192807192808 
0.5949050949050949 0.4050949050949051 
0.9105894105894106 0.08941058941058941 
0.6098901098901099 0.3901098901098901 
0.5439560439560439 0.45604395604395603 
0.8616383616383616 0.13836163836163837 
0.9075924075924076 0.0924075924075924 
0.6018981018981019 0.3981018981018981 
0.3761238761238761 0.6238761238761239 
0.3091908091908092 0.6908091908091908 
0.9805194805194806 0.01948051948051948 
0.9675324675324676 0.032467532467532464 
0.8616383616383616 0.13836163836163837 
0.6928071928071928 0.30719280719280717 
0.7867132867132867 0.21328671328671328 
0.11038961038961038 0.8896103896103896 
0.2192807192807193 0.7807192807192808 
0.5949050949050949 0.4050949050949051 
0.9105894105894106 0.08941058941058941 
0.6098901098901099 0.3901098901098901 
0.5439560439560439 0.45604395604395603 
0.8616383616383616 0.13836163836163837 
0.9075924075924076 0.0924075924075924 
0.6018981018981019 0.3981018981018981 
</TABLE>
</DEFINITION>
</NETWORK>
</BIF>
